Language model created by QuickLM on Wed Feb 28 10:52:35 EST 2018
Copyright (c) 1996-2010 Carnegie Mellon University and Alexander I. Rudnicky

The model is in standard ARPA format, designed by Doug Paul while he was at MITRE.

The code that was used to produce this language model is available in Open Source.
Please visit http://www.speech.cs.cmu.edu/tools/ for more information

The (fixed) discount mass is 0.5. The backoffs are computed using the ratio method.
This model based on a corpus of 33 sentences and 36 words

\data\
ngram 1=36
ngram 2=67
ngram 3=34

\1-grams:
-0.7825 </s> -0.3010
-0.7825 <s> -0.2227
-2.3010 ACCORD -0.2227
-2.3010 AFFECT -0.2227
-2.3010 APPARENT -0.2227
-2.3010 APPOINT -0.2227
-2.3010 APPROACH -0.2227
-2.3010 CIRCUMSTANCES -0.2227
-2.3010 COAST -0.2227
-2.3010 COMMISSION -0.2227
-2.3010 COMMIT -0.2227
-2.3010 CONCEPT -0.2227
-2.3010 CONCERN -0.2227
-2.3010 CONDUCT -0.2227
-2.3010 CONSIDER -0.2227
-2.3010 CONSTANT -0.2227
-2.3010 CONSTITUTE -0.2227
-2.3010 COURT -0.2227
-2.3010 DICTIONARY -0.2227
-2.3010 ENGAGE -0.2227
-2.3010 ESTABLISH -0.2227
-2.3010 EVIDENT -0.2227
-2.3010 FANCY -0.2227
-2.3010 INSTANCE -0.2227
-2.3010 INTEND -0.2227
-2.3010 ISSUE -0.2227
-2.3010 OBTAIN -0.2227
-2.3010 OPEN -0.2989
-2.3010 PASSAGE -0.2227
-2.3010 POLICY -0.2227
-2.3010 PRACTICE -0.2227
-2.3010 PROJECT -0.2227
-2.3010 PROPERTY -0.2227
-2.3010 STOCK -0.2227
-2.3010 STRAIGHT -0.2227
-2.3010 UTTER -0.2227

\2-grams:
-1.8195 <s> ACCORD 0.0000
-1.8195 <s> AFFECT 0.0000
-1.8195 <s> APPARENT 0.0000
-1.8195 <s> APPOINT 0.0000
-1.8195 <s> APPROACH 0.0000
-1.8195 <s> CIRCUMSTANCES 0.0000
-1.8195 <s> COAST 0.0000
-1.8195 <s> COMMISSION 0.0000
-1.8195 <s> COMMIT 0.0000
-1.8195 <s> CONCEPT 0.0000
-1.8195 <s> CONCERN 0.0000
-1.8195 <s> CONDUCT 0.0000
-1.8195 <s> CONSIDER 0.0000
-1.8195 <s> CONSTANT 0.0000
-1.8195 <s> CONSTITUTE 0.0000
-1.8195 <s> COURT 0.0000
-1.8195 <s> ENGAGE 0.0000
-1.8195 <s> ESTABLISH 0.0000
-1.8195 <s> EVIDENT 0.0000
-1.8195 <s> FANCY 0.0000
-1.8195 <s> INSTANCE 0.0000
-1.8195 <s> INTEND 0.0000
-1.8195 <s> ISSUE 0.0000
-1.8195 <s> OBTAIN 0.0000
-1.8195 <s> OPEN 0.0000
-1.8195 <s> PASSAGE 0.0000
-1.8195 <s> POLICY 0.0000
-1.8195 <s> PRACTICE 0.0000
-1.8195 <s> PROJECT 0.0000
-1.8195 <s> PROPERTY 0.0000
-1.8195 <s> STOCK 0.0000
-1.8195 <s> STRAIGHT 0.0000
-1.8195 <s> UTTER 0.0000
-0.3010 ACCORD </s> -0.3010
-0.3010 AFFECT </s> -0.3010
-0.3010 APPARENT </s> -0.3010
-0.3010 APPOINT </s> -0.3010
-0.3010 APPROACH </s> -0.3010
-0.3010 CIRCUMSTANCES </s> -0.3010
-0.3010 COAST </s> -0.3010
-0.3010 COMMISSION </s> -0.3010
-0.3010 COMMIT </s> -0.3010
-0.3010 CONCEPT </s> -0.3010
-0.3010 CONCERN </s> -0.3010
-0.3010 CONDUCT </s> -0.3010
-0.3010 CONSIDER </s> -0.3010
-0.3010 CONSTANT </s> -0.3010
-0.3010 CONSTITUTE </s> -0.3010
-0.3010 COURT </s> -0.3010
-0.3010 DICTIONARY </s> -0.3010
-0.3010 ENGAGE </s> -0.3010
-0.3010 ESTABLISH </s> -0.3010
-0.3010 EVIDENT </s> -0.3010
-0.3010 FANCY </s> -0.3010
-0.3010 INSTANCE </s> -0.3010
-0.3010 INTEND </s> -0.3010
-0.3010 ISSUE </s> -0.3010
-0.3010 OBTAIN </s> -0.3010
-0.3010 OPEN DICTIONARY 0.0000
-0.3010 PASSAGE </s> -0.3010
-0.3010 POLICY </s> -0.3010
-0.3010 PRACTICE </s> -0.3010
-0.3010 PROJECT </s> -0.3010
-0.3010 PROPERTY </s> -0.3010
-0.3010 STOCK </s> -0.3010
-0.3010 STRAIGHT </s> -0.3010
-0.3010 UTTER </s> -0.3010

\3-grams:
-0.3010 <s> ACCORD </s>
-0.3010 <s> AFFECT </s>
-0.3010 <s> APPARENT </s>
-0.3010 <s> APPOINT </s>
-0.3010 <s> APPROACH </s>
-0.3010 <s> CIRCUMSTANCES </s>
-0.3010 <s> COAST </s>
-0.3010 <s> COMMISSION </s>
-0.3010 <s> COMMIT </s>
-0.3010 <s> CONCEPT </s>
-0.3010 <s> CONCERN </s>
-0.3010 <s> CONDUCT </s>
-0.3010 <s> CONSIDER </s>
-0.3010 <s> CONSTANT </s>
-0.3010 <s> CONSTITUTE </s>
-0.3010 <s> COURT </s>
-0.3010 <s> ENGAGE </s>
-0.3010 <s> ESTABLISH </s>
-0.3010 <s> EVIDENT </s>
-0.3010 <s> FANCY </s>
-0.3010 <s> INSTANCE </s>
-0.3010 <s> INTEND </s>
-0.3010 <s> ISSUE </s>
-0.3010 <s> OBTAIN </s>
-0.3010 <s> OPEN DICTIONARY
-0.3010 <s> PASSAGE </s>
-0.3010 <s> POLICY </s>
-0.3010 <s> PRACTICE </s>
-0.3010 <s> PROJECT </s>
-0.3010 <s> PROPERTY </s>
-0.3010 <s> STOCK </s>
-0.3010 <s> STRAIGHT </s>
-0.3010 <s> UTTER </s>
-0.3010 OPEN DICTIONARY </s>

\end\
